{"input_num": 21, "hidden_num": 15, "output_num": 1, "input_weights": [[-4.6099561024475273e-08, -4.9024928037937184e-08, -4.616522162110058e-08, -4.666857997084903e-08, -4.771724908092057e-08, -4.6767256501148704e-08, -4.8854191164007125e-08, -4.625516947221088e-08, -4.8459486306579135e-08, -4.714563409128237e-08, -4.683299866811099e-08, -4.5980647789593125e-08, -4.7663038091720056e-08, -4.8767276117548577e-08, -4.7234814056984306e-08], [1.7391931802402445e-07, 1.849558206340849e-07, 1.7416703747223508e-07, 1.7606606755837949e-07, 1.8002238289087106e-07, 1.7643834580078692e-07, 1.84311690413907e-07, 1.7450638593175213e-07, 1.8282260382655085e-07, 1.7786585374010937e-07, 1.766863720106363e-07, 1.734706907277494e-07, 1.7981786172989422e-07, 1.8398379009242116e-07, 1.7820230313959263e-07], [-1.22441445946388e-07, -1.3021128958468963e-07, -1.2261584319367771e-07, -1.2395278217694897e-07, -1.2673807784125305e-07, -1.2421487047984566e-07, -1.2975781186782135e-07, -1.228547483165149e-07, -1.287094725365925e-07, -1.2521985348975353e-07, -1.243894839041936e-07, -1.2212560738883545e-07, -1.2659409222211194e-07, -1.2952696501571982e-07, -1.2545671808551043e-07], [-1.0345735299885154e-07, -1.1002251811495814e-07, -1.0360471233028188e-07, -1.047343750905528e-07, -1.0708783140390776e-07, -1.0495582932658085e-07, -1.0963935471360322e-07, -1.0380657837244313e-07, -1.0875356382325014e-07, -1.058049987330464e-07, -1.051033706703766e-07, -1.0319048075298948e-07, -1.0696617015277108e-07, -1.0944430172361791e-07, -1.0600513925405282e-07], [-9.357459294990272e-08, -9.951261485555843e-08, -9.370787484196782e-08, -9.472962042298198e-08, -9.685825666295137e-08, -9.492991926685323e-08, -9.916605107255773e-08, -9.389045639411754e-08, -9.836487190415561e-08, -9.569796875880273e-08, -9.506336611661341e-08, -9.333321545388019e-08, -9.674821717988119e-08, -9.898962960342288e-08, -9.58789903240556e-08], [2.547648866331036e-08, 2.709316390080255e-08, 2.5512774834589215e-08, 2.579094762030143e-08, 2.6370481697409813e-08, 2.584547974007632e-08, 2.6998806335643307e-08, 2.5562482960699057e-08, 2.6780673917545712e-08, 2.6054584963532268e-08, 2.5881811200102947e-08, 2.5410773409217454e-08, 2.6340522509261712e-08, 2.6950772906135324e-08, 2.6103869168520998e-08], [-7.272273996944313e-08, -7.733756034226601e-08, -7.282632288041494e-08, -7.362039337038135e-08, -7.527469884164278e-08, -7.377605945009461e-08, -7.706822604751493e-08, -7.296822003197789e-08, -7.64455829102633e-08, -7.437296295188088e-08, -7.387977017274633e-08, -7.253514812664698e-08, -7.518918008741002e-08, -7.693111879887937e-08, -7.45136469174365e-08], [-7.415511744694487e-08, -7.886083492003037e-08, -7.426074086092781e-08, -7.507045359295578e-08, -7.675734483042064e-08, -7.522918603741272e-08, -7.858619635984884e-08, -7.440543326057067e-08, -7.795129048439816e-08, -7.583784732198354e-08, -7.533493967651527e-08, -7.396383016603784e-08, -7.667014164173767e-08, -7.844638888077624e-08, -7.598130241983522e-08], [-1.7999228863329472e-08, -1.9141420670445058e-08, -1.8024866831028896e-08, -1.8221407587532108e-08, -1.863086005167669e-08, -1.8259936383909324e-08, -1.907476101723671e-08, -1.805998797477221e-08, -1.8920657109256422e-08, -1.8407674923870446e-08, -1.8285605712727802e-08, -1.7952797650240535e-08, -1.860969374494115e-08, -1.9040827159887983e-08, -1.8442495221046803e-08], [-2.253108319232934e-08, -2.39608546202218e-08, -2.2563176183795636e-08, -2.2809201269766144e-08, -2.3321744799407792e-08, -2.2857430728973636e-08, -2.3877411269389735e-08, -2.2607139991427855e-08, -2.3684506896480406e-08, -2.3042366492988263e-08, -2.2889563006925594e-08, -2.247296172311402e-08, -2.3295249263859426e-08, -2.383493349127093e-08, -2.3085953769311646e-08], [-1.8654345939945103e-07, -1.9838106787962028e-07, -1.8680916083074158e-07, -1.8884604069942566e-07, -1.9308953680040942e-07, -1.8924534223808084e-07, -1.9769018456770747e-07, -1.8717314258475657e-07, -1.9609301388406939e-07, -1.9077647079869198e-07, -1.8951137237427957e-07, -1.8606226612087668e-07, -1.9287017010550517e-07, -1.9733848402932912e-07, -1.9113734237453539e-07], [5.187421656192849e-08, 5.5166035866866323e-08, 5.194810212143922e-08, 5.251451376382411e-08, 5.369454587935781e-08, 5.2625551073927226e-08, 5.497391083344884e-08, 5.2049317283521386e-08, 5.452976165313549e-08, 5.305132651698668e-08, 5.269952848433267e-08, 5.1740407696629766e-08, 5.3633544029764965e-08, 5.487610798868592e-08, 5.315167773450914e-08], [-1.3397623861220227e-08, -1.4247805098328162e-08, -1.3416706623928827e-08, -1.3562996005412204e-08, -1.3867765357486833e-08, -1.3591673975445888e-08, -1.4198185589168222e-08, -1.3442847911702744e-08, -1.4083476180908623e-08, -1.3701640148190239e-08, -1.3610780349229204e-08, -1.3363064405145183e-08, -1.3852010363402887e-08, -1.4172926320616536e-08, -1.372755806901327e-08], [-2.709615617657634e-07, -2.881561493674405e-07, -2.71347503296453e-07, -2.743061497130731e-07, -2.804699924004267e-07, -2.7488615061180433e-07, -2.8715261398656546e-07, -2.7187620077898e-07, -2.848326605392844e-07, -2.7711017408957e-07, -2.752725696620884e-07, -2.702626100677348e-07, -2.801513537218047e-07, -2.866417550465252e-07, -2.776343540497338e-07], [2.980303767326462e-09, 3.169426987345539e-09, 2.9845481898412504e-09, 3.017086853709209e-09, 3.084880189087148e-09, 3.023465754414786e-09, 3.158387479785319e-09, 2.9903626163395125e-09, 3.1328674546711755e-09, 3.047926258173868e-09, 3.027715654280065e-09, 2.97261704334663e-09, 3.081375462222101e-09, 3.152767808069835e-09, 3.0536914721128684e-09], [1.0932799294399172e-07, 1.1626569341980009e-07, 1.0948371271433476e-07, 1.1067746871933064e-07, 1.1316446332113525e-07, 1.1091148790265184e-07, 1.1586078367346755e-07, 1.0969703172077494e-07, 1.1492472214968814e-07, 1.1180883901262392e-07, 1.1106740057095265e-07, 1.090459798183976e-07, 1.1303589844196807e-07, 1.1565466072537981e-07, 1.1202033576247314e-07], [-1.4452140926433312e-07, -1.5369239897085626e-07, -1.447272572320311e-07, -1.4630529730669523e-07, -1.4959287621327335e-07, -1.4661464972134905e-07, -1.531571492917524e-07, -1.4500924630679546e-07, -1.519197690785109e-07, -1.478008666350754e-07, -1.4682075225896607e-07, -1.4414861238669148e-07, -1.4942292553385103e-07, -1.528846754570922e-07, -1.4808044596361985e-07], [-6.01561706152548e-08, -6.397355232369158e-08, -6.024185419987408e-08, -6.089870811127724e-08, -6.226714916698509e-08, -6.102747492878139e-08, -6.375075812072734e-08, -6.035923126633083e-08, -6.323570610110936e-08, -6.152123310707109e-08, -6.11132643430049e-08, -6.000099502821418e-08, -6.219640800099227e-08, -6.36373426010074e-08, -6.16376068441972e-08], [-6.187744364563617e-08, -6.580403642147782e-08, -6.196557728624483e-08, -6.264121506704504e-08, -6.404879936626933e-08, -6.277366454777421e-08, -6.557486458171966e-08, -6.208631073738681e-08, -6.504507090392323e-08, -6.328154509397345e-08, -6.286190756126305e-08, -6.171783105273935e-08, -6.397603432649962e-08, -6.545820267597674e-08, -6.340124760209517e-08], [1.868382374203622e-08, 1.9869446094156246e-08, 1.871043489383926e-08, 1.8914438264640427e-08, 1.9339451275928967e-08, 1.8954430463255303e-08, 1.9800246816416314e-08, 1.874688929469538e-08, 1.964027453095958e-08, 1.910778193541516e-08, 1.8981074854852398e-08, 1.8635630220371976e-08, 1.9317480081095567e-08, 1.976502041403375e-08, 1.9143925500996697e-08], [9.069611988637691e-08, 9.645147436442029e-08, 9.082530114063868e-08, 9.181561178008894e-08, 9.387876329404197e-08, 9.200974840826072e-08, 9.611556998093737e-08, 9.100226530517927e-08, 9.533903393942426e-08, 9.275416929799449e-08, 9.213908978194731e-08, 9.046216882329971e-08, 9.377210886084838e-08, 9.594457487330702e-08, 9.292962196395915e-08]], "hidden_weights": [[-1.4877956358813953e-05], [-1.5823280504151147e-05], [-1.4897996536977453e-05], [-1.5053172869549767e-05], [-1.5386135072370997e-05], [-1.5083926476261917e-05], [-1.5764611143319172e-05], [-1.4925523222391977e-05], [-1.563090683245407e-05], [-1.5202924697005827e-05], [-1.510447878370974e-05], [-1.4841777019925259e-05], [-1.5368572017287398e-05], [-1.5734942486579112e-05], [-1.5231227767811668e-05]], "input_delta_w": [[-2.4434731823690394e-07, -2.598530645743903e-07, -2.446953583279565e-07, -2.473634433102716e-07, -2.529219050057267e-07, -2.478864821895279e-07, -2.589481121036689e-07, -2.451721346620735e-07, -2.5685605172873194e-07, -2.498920788205601e-07, -2.482349506439591e-07, -2.4371700665732627e-07, -2.526345630201558e-07, -2.584874367842085e-07, -2.5036477657453164e-07], [-8.877887200316956e-08, -9.441258502830972e-08, -8.890532563858686e-08, -8.987472271176807e-08, -9.189428225903876e-08, -9.00647587721154e-08, -9.40837880513393e-08, -8.907855309795139e-08, -9.332367837798753e-08, -9.07934535164701e-08, -9.019136804508108e-08, -8.854986048199056e-08, -9.178988210624723e-08, -9.39164105842302e-08, -9.09651991026252e-08], [1.3141048481856146e-07, 1.397495067418844e-07, 1.3159766148754036e-07, 1.3303256301866014e-07, 1.360219150259409e-07, 1.333138543919315e-07, 1.3926282146220413e-07, 1.3185407276992482e-07, 1.3813770713672738e-07, 1.3439246834004482e-07, 1.3350126143560683e-07, 1.3107150196883463e-07, 1.3586738192156696e-07, 1.3901506933825593e-07, 1.346466861537301e-07], [-2.3392390842545103e-07, -2.487682079761494e-07, -2.342571017626041e-07, -2.3681137111811749e-07, -2.421327190011884e-07, -2.3731209811515157e-07, -2.479018591231402e-07, -2.3471353969008432e-07, -2.458990422185045e-07, -2.3923213966110015e-07, -2.3764570154248483e-07, -2.333204847853451e-07, -2.4185763449932255e-07, -2.474608353704717e-07, -2.396846729932063e-07], [-6.877664583405083e-08, -7.314106133875459e-08, -6.887460897214086e-08, -6.96255971033301e-08, -7.119014200674421e-08, -6.977281729799241e-08, -7.28863436032601e-08, -6.900880760918843e-08, -7.229748960433474e-08, -7.033733427396646e-08, -6.987090100788407e-08, -6.859923150191691e-08, -7.11092636156186e-08, -7.275667693239329e-08, -7.047038490961916e-08], [-4.363617787097843e-07, -4.6405234270233955e-07, -4.3698331773173805e-07, -4.4174805309708837e-07, -4.5167449816642766e-07, -4.426821094940789e-07, -4.6243625510775855e-07, -4.3783475727567576e-07, -4.587001994270055e-07, -4.4626375597829795e-07, -4.43304413498465e-07, -4.35236151942155e-07, -4.5116135539561104e-07, -4.6161356917341755e-07, -4.4710791188802297e-07], [-3.7442907790826833e-07, -3.981895281776491e-07, -3.7496240207694844e-07, -3.7905087993263977e-07, -3.87568467529815e-07, -3.798523659758802e-07, -3.9680281142705023e-07, -3.756929970531488e-07, -3.935970130464165e-07, -3.829256704124987e-07, -3.803863465532577e-07, -3.7346321102157976e-07, -3.8712815496375967e-07, -3.960968890689689e-07, -3.8365001551857954e-07], [-3.9834439927851563e-07, -4.23622463530412e-07, -3.989117876255436e-07, -4.0326140241637956e-07, -4.1232302053015795e-07, -4.0411408052089087e-07, -4.2214717519524144e-07, -3.996890467490504e-07, -4.1873661788148904e-07, -4.0738368131269883e-07, -4.046821672023797e-07, -3.9731684109069985e-07, -4.118545845700025e-07, -4.2139616456530286e-07, -4.0815429137793203e-07], [-5.792660192187331e-07, -6.160249737296348e-07, -5.800911062281885e-07, -5.864162461061081e-07, -5.995935054373701e-07, -5.87656196892839e-07, -6.138796331583554e-07, -5.812213839456377e-07, -6.089200555616001e-07, -5.924107977822588e-07, -5.884822994090366e-07, -5.777717606272988e-07, -5.989123133975431e-07, -6.127875255781224e-07, -5.935314065460974e-07], [-4.4013622455372946e-07, -4.6806630662343444e-07, -4.407631397692289e-07, -4.455690891832762e-07, -4.555813961020375e-07, -4.4651122498927465e-07, -4.6643624018056186e-07, -4.416219441022127e-07, -4.626678683334419e-07, -4.501238520298724e-07, -4.47138911804158e-07, -4.390008613300626e-07, -4.55063814744495e-07, -4.656064381703929e-07, -4.509753097266021e-07], [-5.450869038383247e-07, -5.79676926449534e-07, -5.458633072669047e-07, -5.518152374647947e-07, -5.642149834392603e-07, -5.529820259744376e-07, -5.776581699354637e-07, -5.469268938765815e-07, -5.729912281386578e-07, -5.574560855460593e-07, -5.537593849906191e-07, -5.436808127469859e-07, -5.635739845758895e-07, -5.766305012654276e-07, -5.585105737107866e-07], [-4.2525336635213897e-07, -4.522390147946785e-07, -4.258590829256358e-07, -4.305025229626696e-07, -4.4017627164461726e-07, -4.314128011917973e-07, -4.506640677588782e-07, -4.266888474695777e-07, -4.4702312042426777e-07, -4.3490327010729426e-07, -4.3201926327365533e-07, -4.241563945375915e-07, -4.396761918911745e-07, -4.498623248471514e-07, -4.357259364356744e-07], [-3.48539233979177e-07, -3.70656771383468e-07, -3.490356815260737e-07, -3.528414621773098e-07, -3.6077010242356043e-07, -3.535875295850993e-07, -3.693659389601426e-07, -3.497157596193042e-07, -3.6638180504052344e-07, -3.564483308351194e-07, -3.540845881534098e-07, -3.4764015181736173e-07, -3.603602352056038e-07, -3.687088275004532e-07, -3.5712259120458735e-07], [-3.0867240639457226e-07, -3.282600821238198e-07, -3.0911206897487857e-07, -3.124825344987029e-07, -3.195042761726783e-07, -3.1314326476847995e-07, -3.271168984833124e-07, -3.0971435796018756e-07, -3.244740975927029e-07, -3.156768401022487e-07, -3.135834684799755e-07, -3.078761635978415e-07, -3.1914129063723496e-07, -3.2653494914803643e-07, -3.162739768102286e-07], [-1.267322363020705e-07, -1.3477438680759423e-07, -1.2691274943141493e-07, -1.2829656808304808e-07, -1.3117949835683748e-07, -1.2856784540796152e-07, -1.3430502765444643e-07, -1.2716003240335232e-07, -1.332199677008207e-07, -1.2960806041013387e-07, -1.2874858071060137e-07, -1.264053213327418e-07, -1.3103046667243992e-07, -1.3406609557258178e-07, -1.2985322800144623e-07], [3.96585675231048e-07, 4.2175213470187113e-07, 3.9715055851077245e-07, 4.014809693862434e-07, 4.1050257969342396e-07, 4.0232988284516193e-07, 4.202833598888605e-07, 3.9792438596983486e-07, 4.1688786047268074e-07, 4.055850480743046e-07, 4.028954613761418e-07, 3.9556265379911065e-07, 4.100362119174561e-07, 4.195356650340582e-07, 4.063522558312452e-07], [-1.7272359262893754e-07, -1.836842540068824e-07, -1.7296961429735306e-07, -1.7485562322476832e-07, -1.7878477407633815e-07, -1.7522534757845314e-07, -1.8304456357348917e-07, -1.733066367042423e-07, -1.815657334125401e-07, -1.7664305847446762e-07, -1.7547167204725231e-07, -1.7227803962968293e-07, -1.7858165852582162e-07, -1.8271892260968888e-07, -1.7697719782530116e-07], [-1.0338608341748248e-07, -1.0994673812760884e-07, -1.0353334307290174e-07, -1.0466223967195965e-07, -1.0701408698776297e-07, -1.0488354327206281e-07, -1.0956384261518029e-07, -1.0373507247270105e-07, -1.0867866847044938e-07, -1.0573213363963411e-07, -1.0503098417281889e-07, -1.0311939153800771e-07, -1.0689250937969292e-07, -1.0936892573477511e-07, -1.0593213734655418e-07], [4.520448525509242e-07, 4.807306301047636e-07, 4.526887300150882e-07, 4.576247124974276e-07, 4.6790791926909277e-07, 4.5859233937689503e-07, 4.790564594646086e-07, 4.5357077074797127e-07, 4.7518612796050295e-07, 4.6230271213602057e-07, 4.5923700931736586e-07, 4.508787701600584e-07, 4.673763338748421e-07, 4.782042057613066e-07, 4.63177207457013e-07], [2.2772138350254974e-08, 2.421720843888535e-08, 2.280457421720891e-08, 2.305322847208643e-08, 2.3571253632570387e-08, 2.310197348720233e-08, 2.413287068960139e-08, 2.28490077584525e-08, 2.3937899495978706e-08, 2.328888662496957e-08, 2.3134449275814473e-08, 2.2713395972407412e-08, 2.3544474572761298e-08, 2.408993769494037e-08, 2.333294005976462e-08], [-4.38523523739257e-09, -4.663512673428479e-09, -4.391481418780283e-09, -4.4393648183822475e-09, -4.539121027161154e-09, -4.448751655693952e-09, -4.6472717361781444e-09, -4.400037994705939e-09, -4.609726094420654e-09, -4.484745556023446e-09, -4.4550055248033714e-09, -4.373923205939781e-09, -4.533964178256899e-09, -4.639004120808058e-09, -4.493228934774272e-09]], "hidden_delta_w": [[0.0695530428487353], [0.07397234303695596], [0.06964672978394167], [0.07037217077879176], [0.07192874240419249], [0.07051594193258745], [0.073698072383249], [0.06977541573798837], [0.07307302278964836], [0.0710722500818721], [0.07061202260537794], [0.06938390595637307], [0.07184663683607227], [0.0735593756063983], [0.07120456468151862]], "hidden_delta_b": [6.310875949647585e-06, 6.711350333195784e-06, 6.319864948814775e-06, 6.388774865518601e-06, 6.532335934590269e-06, 6.402283642728219e-06, 6.687977689598718e-06, 6.332178880975158e-06, 6.633945038040821e-06, 6.454083153501666e-06, 6.411283705442833e-06, 6.294596588707415e-06, 6.524914614646397e-06, 6.676079606103644e-06, 6.466291746206984e-06], "output_delta_b": [2.1515569419314566], "hidden_bias": [-0.06040877191299799, 0.06287029306051609, -0.05779386371790227, -0.03755199071114861, 0.005860189845181115, -0.03354141001130939, 0.05521509339687113, -0.054202413526681044, 0.03777494701981929, -0.018025117740501445, -0.03086133559424583, -0.06513010260273129, 0.003570517903056525, 0.051344541525917074, -0.014335048670999754], "output_bias": [0.38574512795289223]}